<?xml version="1.0"?>
<opencv_storage>
<cascade>
  <stageType>BOOST</stageType>
  <featureType>HAAR</featureType>
  <height>24</height>
  <width>24</width>
  <stageParams>
    <boostType>GAB</boostType>
    <minHitRate>9.9500000476837158e-01</minHitRate>
    <maxFalseAlarm>5.0000000000000000e-01</maxFalseAlarm>
    <weightTrimRate>9.4999999999999996e-01</weightTrimRate>
    <maxDepth>1</maxDepth>
    <maxWeakCount>100</maxWeakCount></stageParams>
  <featureParams>
    <maxCatCount>0</maxCatCount>
    <featSize>1</featSize>
    <mode>BASIC</mode></featureParams>
  <stageNum>16</stageNum>
  <stages>
    <!-- stage 0 -->
    <_>
      <maxWeakCount>3</maxWeakCount>
      <stageThreshold>-1.1271594762802124e+00</stageThreshold>
      <weakClassifiers>
        <_>
          <internalNodes>
            0 -1 21 1.0804835706949234e-02</internalNodes>
          <leafValues>
            -8.2509881258010864e-01 7.7761626243591309e-01</leafValues></_>
        <_>
          <internalNodes>
            0 -1 17 9.2896772548556328e-03</internalNodes>
          <leafValues>
            -7.2567045688629150e-01 7.4530953168869019e-01</leafValues></_>
        <_>
          <internalNodes>
            0 -1 84 -6.1516344430856407e-05</internalNodes>
          <leafValues>
            4.2360979318618774e-01 -8.7972170114517212e-01</leafValues></_></weakClassifiers></_>
    <!-- stage 1 -->
    <_>
      <maxWeakCount>5</maxWeakCount>
      <stageThreshold>-1.3160408735275269e+00</stageThreshold>
      <weakClassifiers>
        <_>
          <internalNodes>
            0 -1 62 -1.9158752635121346e-02</internalNodes>
          <leafValues>
            6.9016051292419434e-01 -8.0782920122146606e-01</leafValues></_>
        <_>
          <internalNodes>
            0 -1 36 1.9652888178825378e-02</internalNodes>
          <leafValues>
            -7.2672122716903687e-01 6.3291174173355103e-01</leafValues></_>
        <_>
          <internalNodes>
            0 -1 23 3.0574565753340721e-03</internalNodes>
          <leafValues>
            -5.4733794927597046e-01 6.8329608440399170e-01</leafValues></_>
        <_>
          <internalNodes>
            0 -1 94 3.7600664654746652e-04</internalNodes>
          <leafValues>
            4.1054740548133850e-01 -7.8084897994995117e-01</leafValues></_>
        <_>
          <internalNodes>
            0 -1 54 1.4490622561424971e-04</internalNodes>
          <leafValues>
            -8.2365155220031738e-01 3.5530006885528564e-01</leafValues></_></weakClassifiers></_>
    <!-- stage 2 -->
    <_>
      <maxWeakCount>6</maxWeakCount>
      <stageThreshold>-1.2085043191909790e+00</stageThreshold>
      <weakClassifiers>
        <_>
          <internalNodes>
            0 -1 31 3.2610684633255005e-02</internalNodes>
          <leafValues>
            -7.8807240724563599e-01 5.7818657159805298e-01</leafValues></_>
        <_>
          <internalNodes>
            0 -1 49 -2.3141376674175262e-02</internalNodes>
          <leafValues>
            5.7746326923370361e-01 -7.2057825326919556e-01</leafValues></_>
        <_>
          <internalNodes>
            0 -1 16 7.3747169226408005e-03</internalNodes>
          <leafValues>
            -5.5659508705139160e-01 5.4335618019104004e-01</leafValues></_>
        <_>
          <internalNodes>
            0 -1 73 -1.0920028435066342e-03</internalNodes>
          <leafValues>
            3.2714128494262695e-01 -8.6806923151016235e-01</leafValues></_>
        <_>
          <internalNodes>
            0 -1 72 1.9637715071439743e-02</internalNodes>
          <leafValues>
            2.0991750061511993e-01 -8.7770247459411621e-01</leafValues></_>
        <_>
          <internalNodes>
            0 -1 34 -3.8997549563646317e-02</internalNodes>
          <leafValues>
            -7.8026854991912842e-01 3.2482293248176575e-01</leafValues></_></weakClassifiers></_>
    <!-- stage 3 -->
    <_>
      <maxWeakCount>8</maxWeakCount>
      <stageThreshold>-1.5480078458786011e+00</stageThreshold>
      <weakClassifiers>
        <_>
          <internalNodes>
            0 -1 25 5.3745180368423462e-02</internalNodes>
          <leafValues>
            -6.4028102159500122e-01 6.0632413625717163e-01</leafValues></_>
        <_>
          <internalNodes>
            0 -1 1 -2.6066236197948456e-02</internalNodes>
          <leafValues>
            6.3259506225585938e-01 -4.8812523484230042e-01</leafValues></_>
        <_>
          <internalNodes>
            0 -1 74 -2.1954484283924103e-01</internalNodes>
          <leafValues>
            8.4746330976486206e-01 -3.0060777068138123e-01</leafValues></_>
        <_>
          <internalNodes>
            0 -1 87 -4.2748951818794012e-04</internalNodes>
          <leafValues>
            -8.2470929622650146e-01 3.5462048649787903e-01</leafValues></_>
        <_>
          <internalNodes>
            0 -1 70 6.4676746726036072e-02</internalNodes>
          <leafValues>
            -3.0458489060401917e-01 8.9686888456344604e-01</leafValues></_>
        <_>
          <internalNodes>
            0 -1 76 -1.1734089348465204e-03</internalNodes>
          <leafValues>
            4.7306600213050842e-01 -5.8966559171676636e-01</leafValues></_>
        <_>
          <internalNodes>
            0 -1 64 1.2273597531020641e-02</internalNodes>
          <leafValues>
            2.1956509351730347e-01 -8.6148566007614136e-01</leafValues></_>
        <_>
          <internalNodes>
            0 -1 14 -1.0034672450274229e-03</internalNodes>
          <leafValues>
            -8.2826334238052368e-01 2.5064900517463684e-01</leafValues></_></weakClassifiers></_>
    <!-- stage 4 -->
    <_>
      <maxWeakCount>6</maxWeakCount>
      <stageThreshold>-1.3048268556594849e+00</stageThreshold>
      <weakClassifiers>
        <_>
          <internalNodes>
            0 -1 38 4.5025650411844254e-02</internalNodes>
          <leafValues>
            -6.4969640970230103e-01 6.2827640771865845e-01</leafValues></_>
        <_>
          <internalNodes>
            0 -1 28 -1.7925015708897263e-04</internalNodes>
          <leafValues>
            2.8702557086944580e-01 -8.8544660806655884e-01</leafValues></_>
        <_>
          <internalNodes>
            0 -1 8 1.5485750511288643e-02</internalNodes>
          <leafValues>
            -5.1217800378799438e-01 4.6905389428138733e-01</leafValues></_>
        <_>
          <internalNodes>
            0 -1 65 6.9269025698304176e-04</internalNodes>
          <leafValues>
            -7.6857823133468628e-01 3.4288063645362854e-01</leafValues></_>
        <_>
          <internalNodes>
            0 -1 71 -2.1566151082515717e-01</internalNodes>
          <leafValues>
            7.1193772554397583e-01 -3.7830758094787598e-01</leafValues></_>
        <_>
          <internalNodes>
            0 -1 98 7.5498543679714203e-02</internalNodes>
          <leafValues>
            -3.1232419610023499e-01 7.9213875532150269e-01</leafValues></_></weakClassifiers></_>
    <!-- stage 5 -->
    <_>
      <maxWeakCount>6</maxWeakCount>
      <stageThreshold>-9.4780874252319336e-01</stageThreshold>
      <weakClassifiers>
        <_>
          <internalNodes>
            0 -1 21 1.6828382387757301e-02</internalNodes>
          <leafValues>
            -6.8492436408996582e-01 4.8078221082687378e-01</leafValues></_>
        <_>
          <internalNodes>
            0 -1 6 2.9536586254835129e-02</internalNodes>
          <leafValues>
            -5.9152489900588989e-01 5.3239738941192627e-01</leafValues></_>
        <_>
          <internalNodes>
            0 -1 67 1.3762880371359643e-05</internalNodes>
          <leafValues>
            -8.1746375560760498e-01 2.5473636388778687e-01</leafValues></_>
        <_>
          <internalNodes>
            0 -1 66 1.5650826971977949e-03</internalNodes>
          <leafValues>
            2.6373249292373657e-01 -8.9994317293167114e-01</leafValues></_>
        <_>
          <internalNodes>
            0 -1 48 -2.2445790469646454e-02</internalNodes>
          <leafValues>
            5.3016680479049683e-01 -4.0263628959655762e-01</leafValues></_>
        <_>
          <internalNodes>
            0 -1 88 -3.9096240652725101e-04</internalNodes>
          <leafValues>
            2.9855203628540039e-01 -7.2202605009078979e-01</leafValues></_></weakClassifiers></_>
    <!-- stage 6 -->
    <_>
      <maxWeakCount>8</maxWeakCount>
      <stageThreshold>-1.6936171054840088e+00</stageThreshold>
      <weakClassifiers>
        <_>
          <internalNodes>
            0 -1 61 -2.9440119862556458e-02</internalNodes>
          <leafValues>
            4.6956521272659302e-01 -6.1782175302505493e-01</leafValues></_>
        <_>
          <internalNodes>
            0 -1 81 -2.0773369818925858e-02</internalNodes>
          <leafValues>
            5.8249509334564209e-01 -5.1274794340133667e-01</leafValues></_>
        <_>
          <internalNodes>
            0 -1 20 3.6245824303478003e-03</internalNodes>
          <leafValues>
            -5.6322008371353149e-01 4.4284924864768982e-01</leafValues></_>
        <_>
          <internalNodes>
            0 -1 63 1.4816404473094735e-05</internalNodes>
          <leafValues>
            -8.0085372924804688e-01 2.4394993484020233e-01</leafValues></_>
        <_>
          <internalNodes>
            0 -1 59 2.1821021800860763e-04</internalNodes>
          <leafValues>
            -7.4155986309051514e-01 2.3659726977348328e-01</leafValues></_>
        <_>
          <internalNodes>
            0 -1 50 -1.3929544948041439e-03</internalNodes>
          <leafValues>
            -8.9047503471374512e-01 1.9655756652355194e-01</leafValues></_>
        <_>
          <internalNodes>
            0 -1 55 -8.3060574252158403e-04</internalNodes>
          <leafValues>
            1.3012050092220306e-01 -8.2750046253204346e-01</leafValues></_>
        <_>
          <internalNodes>
            0 -1 26 -3.7535963929258287e-04</internalNodes>
          <leafValues>
            -8.7691241502761841e-01 1.7110458016395569e-01</leafValues></_></weakClassifiers></_>
    <!-- stage 7 -->
    <_>
      <maxWeakCount>7</maxWeakCount>
      <stageThreshold>-1.3230323791503906e+00</stageThreshold>
      <weakClassifiers>
        <_>
          <internalNodes>
            0 -1 35 -8.8751874864101410e-03</internalNodes>
          <leafValues>
            6.2281507253646851e-01 -5.5209684371948242e-01</leafValues></_>
        <_>
          <internalNodes>
            0 -1 80 -1.1084470897912979e-03</internalNodes>
          <leafValues>
            2.5354334712028503e-01 -7.9916411638259888e-01</leafValues></_>
        <_>
          <internalNodes>
            0 -1 10 -4.3414467945694923e-03</internalNodes>
          <leafValues>
            4.2916381359100342e-01 -4.8799425363540649e-01</leafValues></_>
        <_>
          <internalNodes>
            0 -1 19 -6.0580822173506021e-04</internalNodes>
          <leafValues>
            -7.9267072677612305e-01 2.6383131742477417e-01</leafValues></_>
        <_>
          <internalNodes>
            0 -1 86 -1.5219455957412720e-01</internalNodes>
          <leafValues>
            6.1422562599182129e-01 -3.3596661686897278e-01</leafValues></_>
        <_>
          <internalNodes>
            0 -1 60 -2.1643277257680893e-02</internalNodes>
          <leafValues>
            3.7686106562614441e-01 -5.8826577663421631e-01</leafValues></_>
        <_>
          <internalNodes>
            0 -1 100 -7.7137001790106297e-04</internalNodes>
          <leafValues>
            -9.1693907976150513e-01 2.1529167890548706e-01</leafValues></_></weakClassifiers></_>
    <!-- stage 8 -->
    <_>
      <maxWeakCount>7</maxWeakCount>
      <stageThreshold>-1.0931189060211182e+00</stageThreshold>
      <weakClassifiers>
        <_>
          <internalNodes>
            0 -1 40 -7.4192760512232780e-03</internalNodes>
          <leafValues>
            4.5747125148773193e-01 -5.7136040925979614e-01</leafValues></_>
        <_>
          <internalNodes>
            0 -1 12 1.9308363553136587e-03</internalNodes>
          <leafValues>
            -5.9699743986129761e-01 3.6383381485939026e-01</leafValues></_>
        <_>
          <internalNodes>
            0 -1 97 1.7935093492269516e-03</internalNodes>
          <leafValues>
            2.0133198797702789e-01 -9.0182894468307495e-01</leafValues></_>
        <_>
          <internalNodes>
            0 -1 79 3.6448421888053417e-03</internalNodes>
          <leafValues>
            -6.2163490056991577e-01 3.0985230207443237e-01</leafValues></_>
        <_>
          <internalNodes>
            0 -1 44 -1.0473265312612057e-02</internalNodes>
          <leafValues>
            -7.6627838611602783e-01 2.2364324331283569e-01</leafValues></_>
        <_>
          <internalNodes>
            0 -1 96 3.3745612017810345e-04</internalNodes>
          <leafValues>
            -7.1564650535583496e-01 2.1125829219818115e-01</leafValues></_>
        <_>
          <internalNodes>
            0 -1 68 -1.4570960775017738e-03</internalNodes>
          <leafValues>
            1.8748731911182404e-01 -8.7084686756134033e-01</leafValues></_></weakClassifiers></_>
    <!-- stage 9 -->
    <_>
      <maxWeakCount>9</maxWeakCount>
      <stageThreshold>-1.6635602712631226e+00</stageThreshold>
      <weakClassifiers>
        <_>
          <internalNodes>
            0 -1 17 1.9936449825763702e-02</internalNodes>
          <leafValues>
            -5.8253359794616699e-01 4.6656534075737000e-01</leafValues></_>
        <_>
          <internalNodes>
            0 -1 89 -5.8357669040560722e-03</internalNodes>
          <leafValues>
            -7.9703491926193237e-01 2.3194390535354614e-01</leafValues></_>
        <_>
          <internalNodes>
            0 -1 91 -5.9225864242762327e-04</internalNodes>
          <leafValues>
            2.6313850283622742e-01 -6.9340294599533081e-01</leafValues></_>
        <_>
          <internalNodes>
            0 -1 58 5.3024123189970851e-05</internalNodes>
          <leafValues>
            -7.5698059797286987e-01 2.1558950841426849e-01</leafValues></_>
        <_>
          <internalNodes>
            0 -1 9 4.8875883221626282e-02</internalNodes>
          <leafValues>
            2.2081890702247620e-01 -7.9658597707748413e-01</leafValues></_>
        <_>
          <internalNodes>
            0 -1 77 -1.3595017662737519e-05</internalNodes>
          <leafValues>
            1.8858464062213898e-01 -7.7068674564361572e-01</leafValues></_>
        <_>
          <internalNodes>
            0 -1 42 -1.7217057757079601e-03</internalNodes>
          <leafValues>
            -8.0528914928436279e-01 1.5703590214252472e-01</leafValues></_>
        <_>
          <internalNodes>
            0 -1 4 -3.7237717770040035e-03</internalNodes>
          <leafValues>
            3.3964496850967407e-01 -5.1589167118072510e-01</leafValues></_>
        <_>
          <internalNodes>
            0 -1 69 -1.0928111150860786e-02</internalNodes>
          <leafValues>
            -8.3169847726821899e-01 1.9059988856315613e-01</leafValues></_></weakClassifiers></_>
    <!-- stage 10 -->
    <_>
      <maxWeakCount>9</maxWeakCount>
      <stageThreshold>-1.8723626136779785e+00</stageThreshold>
      <weakClassifiers>
        <_>
          <internalNodes>
            0 -1 24 5.5568562820553780e-03</internalNodes>
          <leafValues>
            -5.1103419065475464e-01 5.3351700305938721e-01</leafValues></_>
        <_>
          <internalNodes>
            0 -1 78 -1.2172728311270475e-03</internalNodes>
          <leafValues>
            3.6904075741767883e-01 -5.7678973674774170e-01</leafValues></_>
        <_>
          <internalNodes>
            0 -1 29 -4.1145212890114635e-05</internalNodes>
          <leafValues>
            2.1974363923072815e-01 -8.5394877195358276e-01</leafValues></_>
        <_>
          <internalNodes>
            0 -1 85 -1.0228399932384491e-01</internalNodes>
          <leafValues>
            6.7622697353363037e-01 -3.1049978733062744e-01</leafValues></_>
        <_>
          <internalNodes>
            0 -1 0 -7.8041315078735352e-02</internalNodes>
          <leafValues>
            8.3529806137084961e-01 -2.3006924986839294e-01</leafValues></_>
        <_>
          <internalNodes>
            0 -1 47 1.3412903994321823e-02</internalNodes>
          <leafValues>
            -1.9926230609416962e-01 7.6999646425247192e-01</leafValues></_>
        <_>
          <internalNodes>
            0 -1 51 1.2560313916765153e-04</internalNodes>
          <leafValues>
            -8.7995463609695435e-01 2.4336610734462738e-01</leafValues></_>
        <_>
          <internalNodes>
            0 -1 18 3.7849717773497105e-04</internalNodes>
          <leafValues>
            2.2000586986541748e-01 -7.0762205123901367e-01</leafValues></_>
        <_>
          <internalNodes>
            0 -1 92 8.0100202467292547e-05</internalNodes>
          <leafValues>
            -7.8692173957824707e-01 1.8411989510059357e-01</leafValues></_></weakClassifiers></_>
    <!-- stage 11 -->
    <_>
      <maxWeakCount>8</maxWeakCount>
      <stageThreshold>-1.0370242595672607e+00</stageThreshold>
      <weakClassifiers>
        <_>
          <internalNodes>
            0 -1 53 2.4218298494815826e-03</internalNodes>
          <leafValues>
            -6.5262550115585327e-01 3.1853628158569336e-01</leafValues></_>
        <_>
          <internalNodes>
            0 -1 3 -1.0411257389932871e-03</internalNodes>
          <leafValues>
            3.3855274319648743e-01 -6.5614432096481323e-01</leafValues></_>
        <_>
          <internalNodes>
            0 -1 41 -1.3908168766647577e-03</internalNodes>
          <leafValues>
            2.9082685708999634e-01 -6.6445887088775635e-01</leafValues></_>
        <_>
          <internalNodes>
            0 -1 56 -4.9235339974984527e-04</internalNodes>
          <leafValues>
            -8.0230897665023804e-01 2.4451641738414764e-01</leafValues></_>
        <_>
          <internalNodes>
            0 -1 101 -2.9195144306868315e-03</internalNodes>
          <leafValues>
            7.3556727170944214e-01 -2.8452447056770325e-01</leafValues></_>
        <_>
          <internalNodes>
            0 -1 83 4.1409148252569139e-05</internalNodes>
          <leafValues>
            2.3899482190608978e-01 -8.6752176284790039e-01</leafValues></_>
        <_>
          <internalNodes>
            0 -1 95 8.6534221190959215e-04</internalNodes>
          <leafValues>
            -3.7211534380912781e-01 5.3932332992553711e-01</leafValues></_>
        <_>
          <internalNodes>
            0 -1 102 -1.7650306690484285e-03</internalNodes>
          <leafValues>
            -8.4064978361129761e-01 2.9079377651214600e-01</leafValues></_></weakClassifiers></_>
    <!-- stage 12 -->
    <_>
      <maxWeakCount>8</maxWeakCount>
      <stageThreshold>-1.3611979484558105e+00</stageThreshold>
      <weakClassifiers>
        <_>
          <internalNodes>
            0 -1 57 5.2181310951709747e-02</internalNodes>
          <leafValues>
            -4.5517241954803467e-01 7.4430382251739502e-01</leafValues></_>
        <_>
          <internalNodes>
            0 -1 37 4.4110273011028767e-03</internalNodes>
          <leafValues>
            2.8115484118461609e-01 -8.2979178428649902e-01</leafValues></_>
        <_>
          <internalNodes>
            0 -1 22 1.2590778991580009e-02</internalNodes>
          <leafValues>
            -6.5682667493820190e-01 3.2261341810226440e-01</leafValues></_>
        <_>
          <internalNodes>
            0 -1 30 1.9765701144933701e-03</internalNodes>
          <leafValues>
            -6.2693947553634644e-01 3.6531084775924683e-01</leafValues></_>
        <_>
          <internalNodes>
            0 -1 33 1.8962964415550232e-02</internalNodes>
          <leafValues>
            2.2036358714103699e-01 -8.7419348955154419e-01</leafValues></_>
        <_>
          <internalNodes>
            0 -1 13 2.9227711260318756e-02</internalNodes>
          <leafValues>
            2.7137225866317749e-01 -7.4043345451354980e-01</leafValues></_>
        <_>
          <internalNodes>
            0 -1 5 -1.0430715046823025e-02</internalNodes>
          <leafValues>
            4.0699335932731628e-01 -5.6504261493682861e-01</leafValues></_>
        <_>
          <internalNodes>
            0 -1 82 -3.8745551137253642e-04</internalNodes>
          <leafValues>
            3.1196904182434082e-01 -6.9175565242767334e-01</leafValues></_></weakClassifiers></_>
    <!-- stage 13 -->
    <_>
      <maxWeakCount>8</maxWeakCount>
      <stageThreshold>-1.1932969093322754e+00</stageThreshold>
      <weakClassifiers>
        <_>
          <internalNodes>
            0 -1 99 -1.3410819694399834e-02</internalNodes>
          <leafValues>
            6.5948718786239624e-01 -5.1257729530334473e-01</leafValues></_>
        <_>
          <internalNodes>
            0 -1 46 -1.3599862577393651e-03</internalNodes>
          <leafValues>
            5.0425106287002563e-01 -5.3880816698074341e-01</leafValues></_>
        <_>
          <internalNodes>
            0 -1 11 -6.0970680788159370e-03</internalNodes>
          <leafValues>
            5.3690981864929199e-01 -4.7713559865951538e-01</leafValues></_>
        <_>
          <internalNodes>
            0 -1 27 5.7688732631504536e-03</internalNodes>
          <leafValues>
            3.0211332440376282e-01 -7.5885486602783203e-01</leafValues></_>
        <_>
          <internalNodes>
            0 -1 32 3.0761868692934513e-03</internalNodes>
          <leafValues>
            3.3645069599151611e-01 -7.7196371555328369e-01</leafValues></_>
        <_>
          <internalNodes>
            0 -1 15 -5.8132351841777563e-04</internalNodes>
          <leafValues>
            -8.3640795946121216e-01 2.2246077656745911e-01</leafValues></_>
        <_>
          <internalNodes>
            0 -1 90 1.5284622786566615e-03</internalNodes>
          <leafValues>
            2.9460838437080383e-01 -7.8785699605941772e-01</leafValues></_>
        <_>
          <internalNodes>
            0 -1 39 -1.0605318471789360e-02</internalNodes>
          <leafValues>
            -8.5517901182174683e-01 2.6205638051033020e-01</leafValues></_></weakClassifiers></_>
    <!-- stage 14 -->
    <_>
      <maxWeakCount>5</maxWeakCount>
      <stageThreshold>-8.4733307361602783e-01</stageThreshold>
      <weakClassifiers>
        <_>
          <internalNodes>
            0 -1 2 1.3230526819825172e-03</internalNodes>
          <leafValues>
            -8.7267905473709106e-01 6.8976897001266479e-01</leafValues></_>
        <_>
          <internalNodes>
            0 -1 75 -2.4910056963562965e-03</internalNodes>
          <leafValues>
            8.0896133184432983e-01 -6.6338294744491577e-01</leafValues></_>
        <_>
          <internalNodes>
            0 -1 7 -2.1462561562657356e-03</internalNodes>
          <leafValues>
            7.6566213369369507e-01 -5.6477856636047363e-01</leafValues></_>
        <_>
          <internalNodes>
            0 -1 93 -1.9805155694484711e-02</internalNodes>
          <leafValues>
            8.0702847242355347e-01 -4.5373186469078064e-01</leafValues></_>
        <_>
          <internalNodes>
            0 -1 45 2.1291999146342278e-02</internalNodes>
          <leafValues>
            4.4647908210754395e-01 -8.8286423683166504e-01</leafValues></_></weakClassifiers></_>
    <!-- stage 15 -->
    <_>
      <maxWeakCount>2</maxWeakCount>
      <stageThreshold>1.8821198493242264e-02</stageThreshold>
      <weakClassifiers>
        <_>
          <internalNodes>
            0 -1 43 -8.3352932706475258e-03</internalNodes>
          <leafValues>
            -9.8117882013320923e-01 1.</leafValues></_>
        <_>
          <internalNodes>
            0 -1 52 4.1730355587787926e-04</internalNodes>
          <leafValues>
            -9.6670442819595337e-01 1.</leafValues></_></weakClassifiers></_></stages>
  <features>
    <_>
      <rects>
        <_>
          0 1 21 2 -1.</_>
        <_>
          7 1 7 2 3.</_></rects>
      <tilted>0</tilted></_>
    <_>
      <rects>
        <_>
          0 6 6 8 -1.</_>
        <_>
          2 6 2 8 3.</_></rects>
      <tilted>0</tilted></_>
    <_>
      <rects>
        <_>
          0 7 6 4 -1.</_>
        <_>
          0 7 3 2 2.</_>
        <_>
          3 9 3 2 2.</_></rects>
      <tilted>0</tilted></_>
    <_>
      <rects>
        <_>
          0 9 6 1 -1.</_>
        <_>
          2 9 2 1 3.</_></rects>
      <tilted>0</tilted></_>
    <_>
      <rects>
        <_>
          1 6 21 2 -1.</_>
        <_>
          1 7 21 1 2.</_></rects>
      <tilted>0</tilted></_>
    <_>
      <rects>
        <_>
          1 8 6 10 -1.</_>
        <_>
          1 8 3 5 2.</_>
        <_>
          4 13 3 5 2.</_></rects>
      <tilted>0</tilted></_>
    <_>
      <rects>
        <_>
          1 8 6 8 -1.</_>
        <_>
          4 8 3 8 2.</_></rects>
      <tilted>0</tilted></_>
    <_>
      <rects>
        <_>
          1 10 6 6 -1.</_>
        <_>
          1 10 3 3 2.</_>
        <_>
          4 13 3 3 2.</_></rects>
      <tilted>0</tilted></_>
    <_>
      <rects>
        <_>
          2 2 4 10 -1.</_>
        <_>
          2 2 2 5 2.</_>
        <_>
          4 7 2 5 2.</_></rects>
      <tilted>0</tilted></_>
    <_>
      <rects>
        <_>
          2 3 16 18 -1.</_>
        <_>
          2 3 8 9 2.</_>
        <_>
          10 12 8 9 2.</_></rects>
      <tilted>0</tilted></_>
    <_>
      <rects>
        <_>
          2 4 3 11 -1.</_>
        <_>
          3 4 1 11 3.</_></rects>
      <tilted>0</tilted></_>
    <_>
      <rects>
        <_>
          2 4 3 15 -1.</_>
        <_>
          3 4 1 15 3.</_></rects>
      <tilted>0</tilted></_>
    <_>
      <rects>
        <_>
          2 4 6 2 -1.</_>
        <_>
          2 4 3 1 2.</_>
        <_>
          5 5 3 1 2.</_></rects>
      <tilted>0</tilted></_>
    <_>
      <rects>
        <_>
          2 4 11 12 -1.</_>
        <_>
          2 8 11 4 3.</_></rects>
      <tilted>0</tilted></_>
    <_>
      <rects>
        <_>
          2 7 4 6 -1.</_>
        <_>
          2 9 4 2 3.</_></rects>
      <tilted>0</tilted></_>
    <_>
      <rects>
        <_>
          2 8 2 3 -1.</_>
        <_>
          2 9 2 1 3.</_></rects>
      <tilted>0</tilted></_>
    <_>
      <rects>
        <_>
          2 9 6 3 -1.</_>
        <_>
          4 9 2 3 3.</_></rects>
      <tilted>0</tilted></_>
    <_>
      <rects>
        <_>
          2 9 4 5 -1.</_>
        <_>
          4 9 2 5 2.</_></rects>
      <tilted>0</tilted></_>
    <_>
      <rects>
        <_>
          2 10 2 2 -1.</_>
        <_>
          2 11 2 1 2.</_></rects>
      <tilted>0</tilted></_>
    <_>
      <rects>
        <_>
          2 10 3 3 -1.</_>
        <_>
          2 11 3 1 3.</_></rects>
      <tilted>0</tilted></_>
    <_>
      <rects>
        <_>
          3 2 2 10 -1.</_>
        <_>
          3 2 1 5 2.</_>
        <_>
          4 7 1 5 2.</_></rects>
      <tilted>0</tilted></_>
    <_>
      <rects>
        <_>
          3 2 8 4 -1.</_>
        <_>
          3 2 4 2 2.</_>
        <_>
          7 4 4 2 2.</_></rects>
      <tilted>0</tilted></_>
    <_>
      <rects>
        <_>
          3 2 10 4 -1.</_>
        <_>
          3 2 5 2 2.</_>
        <_>
          8 4 5 2 2.</_></rects>
      <tilted>0</tilted></_>
    <_>
      <rects>
        <_>
          3 3 2 8 -1.</_>
        <_>
          3 3 1 4 2.</_>
        <_>
          4 7 1 4 2.</_></rects>
      <tilted>0</tilted></_>
    <_>
      <rects>
        <_>
          3 4 2 6 -1.</_>
        <_>
          3 4 1 3 2.</_>
        <_>
          4 7 1 3 2.</_></rects>
      <tilted>0</tilted></_>
    <_>
      <rects>
        <_>
          3 4 15 3 -1.</_>
        <_>
          8 4 5 3 3.</_></rects>
      <tilted>0</tilted></_>
    <_>
      <rects>
        <_>
          3 7 3 6 -1.</_>
        <_>
          3 9 3 2 3.</_></rects>
      <tilted>0</tilted></_>
    <_>
      <rects>
        <_>
          3 7 16 4 -1.</_>
        <_>
          11 7 8 4 2.</_></rects>
      <tilted>0</tilted></_>
    <_>
      <rects>
        <_>
          3 11 3 4 -1.</_>
        <_>
          3 13 3 2 2.</_></rects>
      <tilted>0</tilted></_>
    <_>
      <rects>
        <_>
          3 12 3 4 -1.</_>
        <_>
          3 14 3 2 2.</_></rects>
      <tilted>0</tilted></_>
    <_>
      <rects>
        <_>
          3 13 4 4 -1.</_>
        <_>
          5 13 2 4 2.</_></rects>
      <tilted>0</tilted></_>
    <_>
      <rects>
        <_>
          3 14 15 4 -1.</_>
        <_>
          8 14 5 4 3.</_></rects>
      <tilted>0</tilted></_>
    <_>
      <rects>
        <_>
          3 15 6 4 -1.</_>
        <_>
          5 15 2 4 3.</_></rects>
      <tilted>0</tilted></_>
    <_>
      <rects>
        <_>
          4 2 14 8 -1.</_>
        <_>
          4 2 7 4 2.</_>
        <_>
          11 6 7 4 2.</_></rects>
      <tilted>0</tilted></_>
    <_>
      <rects>
        <_>
          4 3 12 14 -1.</_>
        <_>
          4 10 12 7 2.</_></rects>
      <tilted>0</tilted></_>
    <_>
      <rects>
        <_>
          4 5 4 4 -1.</_>
        <_>
          4 5 2 2 2.</_>
        <_>
          6 7 2 2 2.</_></rects>
      <tilted>0</tilted></_>
    <_>
      <rects>
        <_>
          4 8 8 10 -1.</_>
        <_>
          4 8 4 5 2.</_>
        <_>
          8 13 4 5 2.</_></rects>
      <tilted>0</tilted></_>
    <_>
      <rects>
        <_>
          4 10 12 2 -1.</_>
        <_>
          8 10 4 2 3.</_></rects>
      <tilted>0</tilted></_>
    <_>
      <rects>
        <_>
          5 3 11 6 -1.</_>
        <_>
          5 5 11 2 3.</_></rects>
      <tilted>0</tilted></_>
    <_>
      <rects>
        <_>
          5 8 8 8 -1.</_>
        <_>
          5 12 8 4 2.</_></rects>
      <tilted>0</tilted></_>
    <_>
      <rects>
        <_>
          5 11 1 8 -1.</_>
        <_>
          5 15 1 4 2.</_></rects>
      <tilted>0</tilted></_>
    <_>
      <rects>
        <_>
          5 15 4 4 -1.</_>
        <_>
          5 17 4 2 2.</_></rects>
      <tilted>0</tilted></_>
    <_>
      <rects>
        <_>
          6 2 3 4 -1.</_>
        <_>
          7 2 1 4 3.</_></rects>
      <tilted>0</tilted></_>
    <_>
      <rects>
        <_>
          6 3 9 9 -1.</_>
        <_>
          9 3 3 9 3.</_></rects>
      <tilted>0</tilted></_>
    <_>
      <rects>
        <_>
          6 3 8 11 -1.</_>
        <_>
          10 3 4 11 2.</_></rects>
      <tilted>0</tilted></_>
    <_>
      <rects>
        <_>
          6 5 10 13 -1.</_>
        <_>
          11 5 5 13 2.</_></rects>
      <tilted>0</tilted></_>
    <_>
      <rects>
        <_>
          6 6 3 2 -1.</_>
        <_>
          6 7 3 1 2.</_></rects>
      <tilted>0</tilted></_>
    <_>
      <rects>
        <_>
          6 14 9 3 -1.</_>
        <_>
          6 15 9 1 3.</_></rects>
      <tilted>0</tilted></_>
    <_>
      <rects>
        <_>
          6 15 11 4 -1.</_>
        <_>
          6 17 11 2 2.</_></rects>
      <tilted>0</tilted></_>
    <_>
      <rects>
        <_>
          7 0 7 6 -1.</_>
        <_>
          7 2 7 2 3.</_></rects>
      <tilted>0</tilted></_>
    <_>
      <rects>
        <_>
          7 2 3 4 -1.</_>
        <_>
          8 2 1 4 3.</_></rects>
      <tilted>0</tilted></_>
    <_>
      <rects>
        <_>
          7 3 4 3 -1.</_>
        <_>
          9 3 2 3 2.</_></rects>
      <tilted>0</tilted></_>
    <_>
      <rects>
        <_>
          7 3 6 3 -1.</_>
        <_>
          9 3 2 3 3.</_></rects>
      <tilted>0</tilted></_>
    <_>
      <rects>
        <_>
          7 4 2 3 -1.</_>
        <_>
          7 5 2 1 3.</_></rects>
      <tilted>0</tilted></_>
    <_>
      <rects>
        <_>
          7 4 4 3 -1.</_>
        <_>
          9 4 2 3 2.</_></rects>
      <tilted>0</tilted></_>
    <_>
      <rects>
        <_>
          7 5 5 9 -1.</_>
        <_>
          7 8 5 3 3.</_></rects>
      <tilted>0</tilted></_>
    <_>
      <rects>
        <_>
          7 7 9 10 -1.</_>
        <_>
          10 7 3 10 3.</_></rects>
      <tilted>0</tilted></_>
    <_>
      <rects>
        <_>
          7 13 10 6 -1.</_>
        <_>
          7 15 10 2 3.</_></rects>
      <tilted>0</tilted></_>
    <_>
      <rects>
        <_>
          7 15 2 3 -1.</_>
        <_>
          8 15 1 3 2.</_></rects>
      <tilted>0</tilted></_>
    <_>
      <rects>
        <_>
          7 15 6 4 -1.</_>
        <_>
          9 15 2 4 3.</_></rects>
      <tilted>0</tilted></_>
    <_>
      <rects>
        <_>
          8 0 7 6 -1.</_>
        <_>
          8 2 7 2 3.</_></rects>
      <tilted>0</tilted></_>
    <_>
      <rects>
        <_>
          8 2 12 4 -1.</_>
        <_>
          8 2 6 2 2.</_>
        <_>
          14 4 6 2 2.</_></rects>
      <tilted>0</tilted></_>
    <_>
      <rects>
        <_>
          8 2 14 4 -1.</_>
        <_>
          8 2 7 2 2.</_>
        <_>
          15 4 7 2 2.</_></rects>
      <tilted>0</tilted></_>
    <_>
      <rects>
        <_>
          8 3 2 3 -1.</_>
        <_>
          9 3 1 3 2.</_></rects>
      <tilted>0</tilted></_>
    <_>
      <rects>
        <_>
          8 5 12 8 -1.</_>
        <_>
          8 9 12 4 2.</_></rects>
      <tilted>0</tilted></_>
    <_>
      <rects>
        <_>
          8 10 5 6 -1.</_>
        <_>
          8 13 5 3 2.</_></rects>
      <tilted>0</tilted></_>
    <_>
      <rects>
        <_>
          9 3 4 2 -1.</_>
        <_>
          11 3 2 2 2.</_></rects>
      <tilted>0</tilted></_>
    <_>
      <rects>
        <_>
          9 4 6 2 -1.</_>
        <_>
          11 4 2 2 3.</_></rects>
      <tilted>0</tilted></_>
    <_>
      <rects>
        <_>
          9 4 4 8 -1.</_>
        <_>
          9 8 4 4 2.</_></rects>
      <tilted>0</tilted></_>
    <_>
      <rects>
        <_>
          10 2 2 16 -1.</_>
        <_>
          10 10 2 8 2.</_></rects>
      <tilted>0</tilted></_>
    <_>
      <rects>
        <_>
          10 2 14 3 -1.</_>
        <_>
          17 2 7 3 2.</_></rects>
      <tilted>0</tilted></_>
    <_>
      <rects>
        <_>
          10 2 14 16 -1.</_>
        <_>
          17 2 7 16 2.</_></rects>
      <tilted>0</tilted></_>
    <_>
      <rects>
        <_>
          10 3 4 18 -1.</_>
        <_>
          10 12 4 9 2.</_></rects>
      <tilted>0</tilted></_>
    <_>
      <rects>
        <_>
          10 4 3 12 -1.</_>
        <_>
          10 8 3 4 3.</_></rects>
      <tilted>0</tilted></_>
    <_>
      <rects>
        <_>
          10 5 14 17 -1.</_>
        <_>
          17 5 7 17 2.</_></rects>
      <tilted>0</tilted></_>
    <_>
      <rects>
        <_>
          10 6 5 3 -1.</_>
        <_>
          10 7 5 1 3.</_></rects>
      <tilted>0</tilted></_>
    <_>
      <rects>
        <_>
          10 15 1 9 -1.</_>
        <_>
          10 18 1 3 3.</_></rects>
      <tilted>0</tilted></_>
    <_>
      <rects>
        <_>
          11 3 2 3 -1.</_>
        <_>
          12 3 1 3 2.</_></rects>
      <tilted>0</tilted></_>
    <_>
      <rects>
        <_>
          11 6 4 2 -1.</_>
        <_>
          11 7 4 1 2.</_></rects>
      <tilted>0</tilted></_>
    <_>
      <rects>
        <_>
          11 11 1 9 -1.</_>
        <_>
          11 14 1 3 3.</_></rects>
      <tilted>0</tilted></_>
    <_>
      <rects>
        <_>
          11 14 4 4 -1.</_>
        <_>
          13 14 2 4 2.</_></rects>
      <tilted>0</tilted></_>
    <_>
      <rects>
        <_>
          11 14 3 8 -1.</_>
        <_>
          11 18 3 4 2.</_></rects>
      <tilted>0</tilted></_>
    <_>
      <rects>
        <_>
          11 15 1 9 -1.</_>
        <_>
          11 18 1 3 3.</_></rects>
      <tilted>0</tilted></_>
    <_>
      <rects>
        <_>
          12 3 2 3 -1.</_>
        <_>
          13 3 1 3 2.</_></rects>
      <tilted>0</tilted></_>
    <_>
      <rects>
        <_>
          12 4 2 3 -1.</_>
        <_>
          13 4 1 3 2.</_></rects>
      <tilted>0</tilted></_>
    <_>
      <rects>
        <_>
          12 4 12 8 -1.</_>
        <_>
          18 4 6 8 2.</_></rects>
      <tilted>0</tilted></_>
    <_>
      <rects>
        <_>
          12 5 12 14 -1.</_>
        <_>
          18 5 6 14 2.</_></rects>
      <tilted>0</tilted></_>
    <_>
      <rects>
        <_>
          12 7 6 4 -1.</_>
        <_>
          12 9 6 2 2.</_></rects>
      <tilted>0</tilted></_>
    <_>
      <rects>
        <_>
          12 9 6 6 -1.</_>
        <_>
          12 12 6 3 2.</_></rects>
      <tilted>0</tilted></_>
    <_>
      <rects>
        <_>
          13 3 2 14 -1.</_>
        <_>
          13 10 2 7 2.</_></rects>
      <tilted>0</tilted></_>
    <_>
      <rects>
        <_>
          13 4 2 16 -1.</_>
        <_>
          13 12 2 8 2.</_></rects>
      <tilted>0</tilted></_>
    <_>
      <rects>
        <_>
          13 5 4 1 -1.</_>
        <_>
          15 5 2 1 2.</_></rects>
      <tilted>0</tilted></_>
    <_>
      <rects>
        <_>
          13 7 5 6 -1.</_>
        <_>
          13 9 5 2 3.</_></rects>
      <tilted>0</tilted></_>
    <_>
      <rects>
        <_>
          13 8 11 10 -1.</_>
        <_>
          13 13 11 5 2.</_></rects>
      <tilted>0</tilted></_>
    <_>
      <rects>
        <_>
          13 9 4 6 -1.</_>
        <_>
          13 12 4 3 2.</_></rects>
      <tilted>0</tilted></_>
    <_>
      <rects>
        <_>
          14 7 3 1 -1.</_>
        <_>
          15 7 1 1 3.</_></rects>
      <tilted>0</tilted></_>
    <_>
      <rects>
        <_>
          14 7 4 9 -1.</_>
        <_>
          14 10 4 3 3.</_></rects>
      <tilted>0</tilted></_>
    <_>
      <rects>
        <_>
          15 9 5 2 -1.</_>
        <_>
          15 10 5 1 2.</_></rects>
      <tilted>0</tilted></_>
    <_>
      <rects>
        <_>
          16 4 8 14 -1.</_>
        <_>
          20 4 4 14 2.</_></rects>
      <tilted>0</tilted></_>
    <_>
      <rects>
        <_>
          16 9 4 8 -1.</_>
        <_>
          18 9 2 8 2.</_></rects>
      <tilted>0</tilted></_>
    <_>
      <rects>
        <_>
          16 9 3 2 -1.</_>
        <_>
          16 10 3 1 2.</_></rects>
      <tilted>0</tilted></_>
    <_>
      <rects>
        <_>
          17 3 2 6 -1.</_>
        <_>
          17 3 1 3 2.</_>
        <_>
          18 6 1 3 2.</_></rects>
      <tilted>0</tilted></_>
    <_>
      <rects>
        <_>
          17 12 4 3 -1.</_>
        <_>
          17 13 4 1 3.</_></rects>
      <tilted>0</tilted></_></features></cascade>
</opencv_storage>
